{
    "layers": [
        9,
        3,
        1
    ],
    "weights": [
        [
            [
                -0.9080592064967747,
                0.5102625688684805,
                -0.37030599379407714,
                -0.1293890641636144,
                -0.01655515958469933,
                0.4917070332620519,
                -0.4128223096252319,
                -0.7221547368549528,
                -0.4613774841903422
            ],
            [
                0.7714751199241174,
                0.5180354502446232,
                -0.045592946491115116,
                -0.18258328256537948,
                0.32874234998734986,
                0.580847737644894,
                -0.0993400240579767,
                -0.21136398430261738,
                -0.8843315418406641
            ],
            [
                -0.348792292751924,
                -0.5892564739644528,
                -0.3258020463104634,
                -0.850979360136572,
                -0.33955506820546977,
                -0.5173935541191281,
                0.21077994343629247,
                -0.21962421991140046,
                -0.9609772492149788
            ]
        ],
        [
            [
                0.3734930121738351,
                -0.8139833476597846,
                -0.515047761394551
            ]
        ]
    ]
}